<?xml version="1.0"?>
<opencv_storage>
<cascade>
  <stageType>BOOST</stageType>
  <featureType>HAAR</featureType>
  <height>60</height>
  <width>50</width>
  <stageParams>
    <boostType>GAB</boostType>
    <minHitRate>9.9500000476837158e-01</minHitRate>
    <maxFalseAlarm>5.0000000000000000e-01</maxFalseAlarm>
    <weightTrimRate>9.4999999999999996e-01</weightTrimRate>
    <maxDepth>1</maxDepth>
    <maxWeakCount>100</maxWeakCount></stageParams>
  <featureParams>
    <maxCatCount>0</maxCatCount>
    <featSize>1</featSize>
    <mode>BASIC</mode></featureParams>
  <stageNum>20</stageNum>
  <stages>
    <!-- stage 0 -->
    <_>
      <maxWeakCount>2</maxWeakCount>
      <stageThreshold>-4.4657751917839050e-01</stageThreshold>
      <weakClassifiers>
        <_>
          <internalNodes>
            0 -1 113 6.3526555895805359e-02</internalNodes>
          <leafValues>
            -8.3593750000000000e-01 6.1206895112991333e-01</leafValues></_>
        <_>
          <internalNodes>
            0 -1 56 -8.3951801061630249e-03</internalNodes>
          <leafValues>
            3.8935998082160950e-01 -9.0866404771804810e-01</leafValues></_></weakClassifiers></_>
    <!-- stage 1 -->
    <_>
      <maxWeakCount>5</maxWeakCount>
      <stageThreshold>-1.1778336763381958e+00</stageThreshold>
      <weakClassifiers>
        <_>
          <internalNodes>
            0 -1 7 -2.7619856595993042e-01</internalNodes>
          <leafValues>
            4.4600939750671387e-01 -7.5603556632995605e-01</leafValues></_>
        <_>
          <internalNodes>
            0 -1 79 1.8610779661685228e-03</internalNodes>
          <leafValues>
            -8.2215535640716553e-01 1.7882171273231506e-01</leafValues></_>
        <_>
          <internalNodes>
            0 -1 98 -1.3851330149918795e-03</internalNodes>
          <leafValues>
            3.7821421027183533e-01 -6.7516010999679565e-01</leafValues></_>
        <_>
          <internalNodes>
            0 -1 47 -2.5927892420440912e-03</internalNodes>
          <leafValues>
            6.2274414300918579e-01 -4.7117123007774353e-01</leafValues></_>
        <_>
          <internalNodes>
            0 -1 109 4.2759906500577927e-03</internalNodes>
          <leafValues>
            -4.8548191785812378e-01 5.4571157693862915e-01</leafValues></_></weakClassifiers></_>
    <!-- stage 2 -->
    <_>
      <maxWeakCount>4</maxWeakCount>
      <stageThreshold>-1.3516149520874023e+00</stageThreshold>
      <weakClassifiers>
        <_>
          <internalNodes>
            0 -1 1 1.1690395331243053e-04</internalNodes>
          <leafValues>
            -7.7644228935241699e-01 8.6904764175415039e-01</leafValues></_>
        <_>
          <internalNodes>
            0 -1 44 -2.9657329432666302e-03</internalNodes>
          <leafValues>
            8.3285689353942871e-01 -5.6837874650955200e-01</leafValues></_>
        <_>
          <internalNodes>
            0 -1 63 -7.3009415064007044e-04</internalNodes>
          <leafValues>
            7.6329350471496582e-01 -5.3533393144607544e-01</leafValues></_>
        <_>
          <internalNodes>
            0 -1 20 -2.6313825510442257e-03</internalNodes>
          <leafValues>
            5.2854001522064209e-01 -7.5369149446487427e-01</leafValues></_></weakClassifiers></_>
    <!-- stage 3 -->
    <_>
      <maxWeakCount>4</maxWeakCount>
      <stageThreshold>-1.1806148290634155e+00</stageThreshold>
      <weakClassifiers>
        <_>
          <internalNodes>
            0 -1 36 2.0183685701340437e-03</internalNodes>
          <leafValues>
            -7.4532711505889893e-01 9.5833331346511841e-01</leafValues></_>
        <_>
          <internalNodes>
            0 -1 23 -1.3623187318444252e-02</internalNodes>
          <leafValues>
            8.0439007282257080e-01 -5.1925939321517944e-01</leafValues></_>
        <_>
          <internalNodes>
            0 -1 135 -2.8669147286564112e-04</internalNodes>
          <leafValues>
            5.1024115085601807e-01 -6.1773312091827393e-01</leafValues></_>
        <_>
          <internalNodes>
            0 -1 77 -3.3205992076545954e-03</internalNodes>
          <leafValues>
            7.9222983121871948e-01 -4.2626941204071045e-01</leafValues></_></weakClassifiers></_>
    <!-- stage 4 -->
    <_>
      <maxWeakCount>7</maxWeakCount>
      <stageThreshold>-1.3438317775726318e+00</stageThreshold>
      <weakClassifiers>
        <_>
          <internalNodes>
            0 -1 9 -9.6782937645912170e-02</internalNodes>
          <leafValues>
            5.0980395078659058e-01 -7.5879395008087158e-01</leafValues></_>
        <_>
          <internalNodes>
            0 -1 43 -8.8363531976938248e-03</internalNodes>
          <leafValues>
            5.2742385864257812e-01 -5.0270479917526245e-01</leafValues></_>
        <_>
          <internalNodes>
            0 -1 103 4.5544896274805069e-03</internalNodes>
          <leafValues>
            -4.3299853801727295e-01 5.7628720998764038e-01</leafValues></_>
        <_>
          <internalNodes>
            0 -1 96 -6.0206756461411715e-04</internalNodes>
          <leafValues>
            5.9240555763244629e-01 -3.6527979373931885e-01</leafValues></_>
        <_>
          <internalNodes>
            0 -1 42 6.3351460266858339e-04</internalNodes>
          <leafValues>
            -3.1572392582893372e-01 5.9798884391784668e-01</leafValues></_>
        <_>
          <internalNodes>
            0 -1 39 -7.9288110136985779e-03</internalNodes>
          <leafValues>
            7.5820904970169067e-01 -2.5800487399101257e-01</leafValues></_>
        <_>
          <internalNodes>
            0 -1 52 -4.7075375914573669e-03</internalNodes>
          <leafValues>
            3.7596139311790466e-01 -5.8218657970428467e-01</leafValues></_></weakClassifiers></_>
    <!-- stage 5 -->
    <_>
      <maxWeakCount>6</maxWeakCount>
      <stageThreshold>-8.6088919639587402e-01</stageThreshold>
      <weakClassifiers>
        <_>
          <internalNodes>
            0 -1 127 3.9429068565368652e-02</internalNodes>
          <leafValues>
            -6.8649888038635254e-01 7.9365080595016479e-01</leafValues></_>
        <_>
          <internalNodes>
            0 -1 34 -2.9444690793752670e-02</internalNodes>
          <leafValues>
            6.6814738512039185e-01 -4.8500144481658936e-01</leafValues></_>
        <_>
          <internalNodes>
            0 -1 18 -3.6854010075330734e-02</internalNodes>
          <leafValues>
            7.4019503593444824e-01 -3.6225765943527222e-01</leafValues></_>
        <_>
          <internalNodes>
            0 -1 82 -6.6654395777732134e-04</internalNodes>
          <leafValues>
            3.5855916142463684e-01 -7.7571517229080200e-01</leafValues></_>
        <_>
          <internalNodes>
            0 -1 62 1.8199043115600944e-03</internalNodes>
          <leafValues>
            -3.7234798073768616e-01 6.1893886327743530e-01</leafValues></_>
        <_>
          <internalNodes>
            0 -1 71 -5.1846206188201904e-03</internalNodes>
          <leafValues>
            8.6008447408676147e-01 -2.7280759811401367e-01</leafValues></_></weakClassifiers></_>
    <!-- stage 6 -->
    <_>
      <maxWeakCount>5</maxWeakCount>
      <stageThreshold>-9.2862582206726074e-01</stageThreshold>
      <weakClassifiers>
        <_>
          <internalNodes>
            0 -1 122 6.2188473530113697e-03</internalNodes>
          <leafValues>
            -8.4227126836776733e-01 9.2896178364753723e-02</leafValues></_>
        <_>
          <internalNodes>
            0 -1 90 -8.9108521933667362e-05</internalNodes>
          <leafValues>
            3.1908285617828369e-01 -5.9851801395416260e-01</leafValues></_>
        <_>
          <internalNodes>
            0 -1 26 -2.8541535139083862e-03</internalNodes>
          <leafValues>
            4.9550428986549377e-01 -4.4837579131126404e-01</leafValues></_>
        <_>
          <internalNodes>
            0 -1 95 -1.0474307055119425e-04</internalNodes>
          <leafValues>
            4.1343387961387634e-01 -4.3317040801048279e-01</leafValues></_>
        <_>
          <internalNodes>
            0 -1 41 -8.9542735368013382e-03</internalNodes>
          <leafValues>
            5.4710543155670166e-01 -3.7029078602790833e-01</leafValues></_></weakClassifiers></_>
    <!-- stage 7 -->
    <_>
      <maxWeakCount>7</maxWeakCount>
      <stageThreshold>-1.7777755260467529e+00</stageThreshold>
      <weakClassifiers>
        <_>
          <internalNodes>
            0 -1 25 -8.8697038590908051e-03</internalNodes>
          <leafValues>
            3.4234234690666199e-01 -7.4035990238189697e-01</leafValues></_>
        <_>
          <internalNodes>
            0 -1 129 2.9006158001720905e-04</internalNodes>
          <leafValues>
            -5.1891827583312988e-01 3.9944800734519958e-01</leafValues></_>
        <_>
          <internalNodes>
            0 -1 110 -4.2131729423999786e-04</internalNodes>
          <leafValues>
            5.2266293764114380e-01 -4.4920393824577332e-01</leafValues></_>
        <_>
          <internalNodes>
            0 -1 66 2.1004613488912582e-02</internalNodes>
          <leafValues>
            -5.7573759555816650e-01 3.5682561993598938e-01</leafValues></_>
        <_>
          <internalNodes>
            0 -1 87 -1.3435563596431166e-04</internalNodes>
          <leafValues>
            3.7416896224021912e-01 -5.2615767717361450e-01</leafValues></_>
        <_>
          <internalNodes>
            0 -1 116 -1.5567249647574499e-05</internalNodes>
          <leafValues>
            4.6389907598495483e-01 -4.2130455374717712e-01</leafValues></_>
        <_>
          <internalNodes>
            0 -1 120 -1.3731854778598063e-05</internalNodes>
          <leafValues>
            4.8203948140144348e-01 -4.2068570852279663e-01</leafValues></_></weakClassifiers></_>
    <!-- stage 8 -->
    <_>
      <maxWeakCount>6</maxWeakCount>
      <stageThreshold>-1.4834766387939453e+00</stageThreshold>
      <weakClassifiers>
        <_>
          <internalNodes>
            0 -1 125 2.5395276024937630e-02</internalNodes>
          <leafValues>
            -7.5141245126724243e-01 1.0958904027938843e-01</leafValues></_>
        <_>
          <internalNodes>
            0 -1 60 -3.4580810461193323e-04</internalNodes>
          <leafValues>
            4.5869633555412292e-01 -4.6408092975616455e-01</leafValues></_>
        <_>
          <internalNodes>
            0 -1 40 4.6818371629342437e-05</internalNodes>
          <leafValues>
            -5.8120399713516235e-01 3.8974380493164062e-01</leafValues></_>
        <_>
          <internalNodes>
            0 -1 107 -1.6031385166570544e-04</internalNodes>
          <leafValues>
            2.8944531083106995e-01 -5.8216845989227295e-01</leafValues></_>
        <_>
          <internalNodes>
            0 -1 61 7.1237405063584447e-04</internalNodes>
          <leafValues>
            -3.0351129174232483e-01 6.0056990385055542e-01</leafValues></_>
        <_>
          <internalNodes>
            0 -1 83 -3.4026830689981580e-04</internalNodes>
          <leafValues>
            2.7681583166122437e-01 -5.9549057483673096e-01</leafValues></_></weakClassifiers></_>
    <!-- stage 9 -->
    <_>
      <maxWeakCount>6</maxWeakCount>
      <stageThreshold>-1.7559633255004883e+00</stageThreshold>
      <weakClassifiers>
        <_>
          <internalNodes>
            0 -1 54 -1.7235502600669861e-02</internalNodes>
          <leafValues>
            5.2631580829620361e-01 -6.8396228551864624e-01</leafValues></_>
        <_>
          <internalNodes>
            0 -1 102 -3.5832771100103855e-03</internalNodes>
          <leafValues>
            5.6553584337234497e-01 -4.4338804483413696e-01</leafValues></_>
        <_>
          <internalNodes>
            0 -1 72 2.9663122259080410e-03</internalNodes>
          <leafValues>
            -2.5966075062751770e-01 7.2732436656951904e-01</leafValues></_>
        <_>
          <internalNodes>
            0 -1 123 3.6773338913917542e-02</internalNodes>
          <leafValues>
            -3.9534586668014526e-01 5.2807509899139404e-01</leafValues></_>
        <_>
          <internalNodes>
            0 -1 69 -8.8895857334136963e-04</internalNodes>
          <leafValues>
            4.9378138780593872e-01 -3.9413386583328247e-01</leafValues></_>
        <_>
          <internalNodes>
            0 -1 133 -7.6305968832457438e-06</internalNodes>
          <leafValues>
            3.0678451061248779e-01 -5.6645756959915161e-01</leafValues></_></weakClassifiers></_>
    <!-- stage 10 -->
    <_>
      <maxWeakCount>8</maxWeakCount>
      <stageThreshold>-1.3963780403137207e+00</stageThreshold>
      <weakClassifiers>
        <_>
          <internalNodes>
            0 -1 76 -2.0506173314061016e-04</internalNodes>
          <leafValues>
            -6.3694268465042114e-03 -7.2594749927520752e-01</leafValues></_>
        <_>
          <internalNodes>
            0 -1 27 -2.1477108821272850e-02</internalNodes>
          <leafValues>
            3.1749737262725830e-01 -4.9204641580581665e-01</leafValues></_>
        <_>
          <internalNodes>
            0 -1 48 -2.0044590928591788e-04</internalNodes>
          <leafValues>
            2.6507315039634705e-01 -5.7473582029342651e-01</leafValues></_>
        <_>
          <internalNodes>
            0 -1 92 1.6564026474952698e-01</internalNodes>
          <leafValues>
            -4.8857355117797852e-01 3.4649494290351868e-01</leafValues></_>
        <_>
          <internalNodes>
            0 -1 101 -1.3422677293419838e-03</internalNodes>
          <leafValues>
            5.7053798437118530e-01 -2.8156834840774536e-01</leafValues></_>
        <_>
          <internalNodes>
            0 -1 49 -1.8155884754378349e-04</internalNodes>
          <leafValues>
            3.4094157814979553e-01 -5.0168728828430176e-01</leafValues></_>
        <_>
          <internalNodes>
            0 -1 14 -1.2675510719418526e-02</internalNodes>
          <leafValues>
            4.5932015776634216e-01 -3.3137643337249756e-01</leafValues></_>
        <_>
          <internalNodes>
            0 -1 117 -8.6803338490426540e-05</internalNodes>
          <leafValues>
            3.8785645365715027e-01 -3.6937347054481506e-01</leafValues></_></weakClassifiers></_>
    <!-- stage 11 -->
    <_>
      <maxWeakCount>7</maxWeakCount>
      <stageThreshold>-1.3685395717620850e+00</stageThreshold>
      <weakClassifiers>
        <_>
          <internalNodes>
            0 -1 46 3.4123465418815613e-02</internalNodes>
          <leafValues>
            -8.3749997615814209e-01 -1.8846154212951660e-01</leafValues></_>
        <_>
          <internalNodes>
            0 -1 124 1.9177596550434828e-04</internalNodes>
          <leafValues>
            6.6748604178428650e-02 -8.9495533704757690e-01</leafValues></_>
        <_>
          <internalNodes>
            0 -1 128 2.8211816243128851e-05</internalNodes>
          <leafValues>
            2.2959026694297791e-01 -6.2872028350830078e-01</leafValues></_>
        <_>
          <internalNodes>
            0 -1 31 8.2536670379340649e-04</internalNodes>
          <leafValues>
            -4.4680812954902649e-01 3.4737613797187805e-01</leafValues></_>
        <_>
          <internalNodes>
            0 -1 88 -2.1444342564791441e-04</internalNodes>
          <leafValues>
            5.9654223918914795e-01 -2.7598702907562256e-01</leafValues></_>
        <_>
          <internalNodes>
            0 -1 75 -9.3173468485474586e-04</internalNodes>
          <leafValues>
            5.3531157970428467e-01 -3.2273137569427490e-01</leafValues></_>
        <_>
          <internalNodes>
            0 -1 29 -2.8756774554494768e-05</internalNodes>
          <leafValues>
            -8.4712016582489014e-01 2.1841572225093842e-01</leafValues></_></weakClassifiers></_>
    <!-- stage 12 -->
    <_>
      <maxWeakCount>8</maxWeakCount>
      <stageThreshold>-1.0982997417449951e+00</stageThreshold>
      <weakClassifiers>
        <_>
          <internalNodes>
            0 -1 91 -6.4293917967006564e-04</internalNodes>
          <leafValues>
            1.0416666418313980e-01 -6.4356434345245361e-01</leafValues></_>
        <_>
          <internalNodes>
            0 -1 74 1.7593192751519382e-04</internalNodes>
          <leafValues>
            8.0206990242004395e-02 -8.6245304346084595e-01</leafValues></_>
        <_>
          <internalNodes>
            0 -1 2 -4.1482072323560715e-02</internalNodes>
          <leafValues>
            3.9476725459098816e-01 -3.4845060110092163e-01</leafValues></_>
        <_>
          <internalNodes>
            0 -1 106 5.6665576994419098e-04</internalNodes>
          <leafValues>
            1.8651190400123596e-01 -8.5294914245605469e-01</leafValues></_>
        <_>
          <internalNodes>
            0 -1 15 -6.6257361322641373e-03</internalNodes>
          <leafValues>
            1.6123002767562866e-01 -7.0889765024185181e-01</leafValues></_>
        <_>
          <internalNodes>
            0 -1 10 2.9136057943105698e-02</internalNodes>
          <leafValues>
            -2.0802906155586243e-01 7.4292677640914917e-01</leafValues></_>
        <_>
          <internalNodes>
            0 -1 105 -1.8114238628186285e-04</internalNodes>
          <leafValues>
            -6.0951709747314453e-01 2.4128463864326477e-01</leafValues></_>
        <_>
          <internalNodes>
            0 -1 35 -4.6971333213150501e-03</internalNodes>
          <leafValues>
            3.0263838171958923e-01 -4.1000154614448547e-01</leafValues></_></weakClassifiers></_>
    <!-- stage 13 -->
    <_>
      <maxWeakCount>9</maxWeakCount>
      <stageThreshold>-1.6463005542755127e+00</stageThreshold>
      <weakClassifiers>
        <_>
          <internalNodes>
            0 -1 86 -3.3036805689334869e-04</internalNodes>
          <leafValues>
            1.0729613900184631e-01 -6.8448501825332642e-01</leafValues></_>
        <_>
          <internalNodes>
            0 -1 30 -1.1602458544075489e-03</internalNodes>
          <leafValues>
            -7.6832801103591919e-01 1.1642243713140488e-01</leafValues></_>
        <_>
          <internalNodes>
            0 -1 12 -1.9421979959588498e-04</internalNodes>
          <leafValues>
            2.9426279664039612e-01 -5.0790631771087646e-01</leafValues></_>
        <_>
          <internalNodes>
            0 -1 16 -5.5965727369766682e-05</internalNodes>
          <leafValues>
            -5.3429353237152100e-01 2.9348966479301453e-01</leafValues></_>
        <_>
          <internalNodes>
            0 -1 114 -1.3117698836140335e-04</internalNodes>
          <leafValues>
            2.1088156104087830e-01 -5.9739482402801514e-01</leafValues></_>
        <_>
          <internalNodes>
            0 -1 3 -9.8115801811218262e-03</internalNodes>
          <leafValues>
            3.5817036032676697e-01 -4.4573357701301575e-01</leafValues></_>
        <_>
          <internalNodes>
            0 -1 21 -1.5374699607491493e-02</internalNodes>
          <leafValues>
            -7.3723602294921875e-01 1.9234868884086609e-01</leafValues></_>
        <_>
          <internalNodes>
            0 -1 45 -2.8579874197021127e-04</internalNodes>
          <leafValues>
            3.6842957139015198e-01 -4.5526495575904846e-01</leafValues></_>
        <_>
          <internalNodes>
            0 -1 131 -2.8772517107427120e-03</internalNodes>
          <leafValues>
            5.0641161203384399e-01 -3.0499717593193054e-01</leafValues></_></weakClassifiers></_>
    <!-- stage 14 -->
    <_>
      <maxWeakCount>10</maxWeakCount>
      <stageThreshold>-1.2211418151855469e+00</stageThreshold>
      <weakClassifiers>
        <_>
          <internalNodes>
            0 -1 8 -1.3636910915374756e-01</internalNodes>
          <leafValues>
            -2.9508195817470551e-02 -7.0647484064102173e-01</leafValues></_>
        <_>
          <internalNodes>
            0 -1 99 -7.3419752879999578e-05</internalNodes>
          <leafValues>
            3.4565678238868713e-01 -4.3206930160522461e-01</leafValues></_>
        <_>
          <internalNodes>
            0 -1 112 6.5617397194728255e-04</internalNodes>
          <leafValues>
            1.6493363678455353e-01 -7.6520538330078125e-01</leafValues></_>
        <_>
          <internalNodes>
            0 -1 85 1.4301550108939409e-03</internalNodes>
          <leafValues>
            -2.6004022359848022e-01 5.3889304399490356e-01</leafValues></_>
        <_>
          <internalNodes>
            0 -1 55 9.0197406709194183e-02</internalNodes>
          <leafValues>
            1.7075487971305847e-01 -7.9823625087738037e-01</leafValues></_>
        <_>
          <internalNodes>
            0 -1 81 -4.3809003545902669e-04</internalNodes>
          <leafValues>
            3.5021927952766418e-01 -4.6960577368736267e-01</leafValues></_>
        <_>
          <internalNodes>
            0 -1 132 1.2045571202179417e-04</internalNodes>
          <leafValues>
            1.5263496339321136e-01 -7.7893573045730591e-01</leafValues></_>
        <_>
          <internalNodes>
            0 -1 97 1.4138898404780775e-04</internalNodes>
          <leafValues>
            1.2689785659313202e-01 -7.9061275720596313e-01</leafValues></_>
        <_>
          <internalNodes>
            0 -1 57 -1.8184806685894728e-03</internalNodes>
          <leafValues>
            4.6445605158805847e-01 -2.8605365753173828e-01</leafValues></_>
        <_>
          <internalNodes>
            0 -1 94 -9.2437592684291303e-05</internalNodes>
          <leafValues>
            4.9973618984222412e-01 -3.3188655972480774e-01</leafValues></_></weakClassifiers></_>
    <!-- stage 15 -->
    <_>
      <maxWeakCount>7</maxWeakCount>
      <stageThreshold>-9.5693349838256836e-01</stageThreshold>
      <weakClassifiers>
        <_>
          <internalNodes>
            0 -1 111 -1.8094359256792814e-04</internalNodes>
          <leafValues>
            2.1276595070958138e-02 -7.0473539829254150e-01</leafValues></_>
        <_>
          <internalNodes>
            0 -1 22 -1.5785542200319469e-04</internalNodes>
          <leafValues>
            -6.1841893196105957e-01 1.3648094236850739e-01</leafValues></_>
        <_>
          <internalNodes>
            0 -1 89 -2.6098458329215646e-04</internalNodes>
          <leafValues>
            -7.4766755104064941e-01 1.3827584683895111e-01</leafValues></_>
        <_>
          <internalNodes>
            0 -1 65 4.7325734049081802e-03</internalNodes>
          <leafValues>
            -2.0583215355873108e-01 7.2294157743453979e-01</leafValues></_>
        <_>
          <internalNodes>
            0 -1 84 -5.7397875934839249e-04</internalNodes>
          <leafValues>
            5.0835287570953369e-01 -2.9156711697578430e-01</leafValues></_>
        <_>
          <internalNodes>
            0 -1 4 -1.3733054697513580e-01</internalNodes>
          <leafValues>
            4.0654796361923218e-01 -3.4759902954101562e-01</leafValues></_>
        <_>
          <internalNodes>
            0 -1 119 -1.2521079042926431e-04</internalNodes>
          <leafValues>
            4.3305647373199463e-01 -3.2194516062736511e-01</leafValues></_></weakClassifiers></_>
    <!-- stage 16 -->
    <_>
      <maxWeakCount>8</maxWeakCount>
      <stageThreshold>-1.3296093940734863e+00</stageThreshold>
      <weakClassifiers>
        <_>
          <internalNodes>
            0 -1 51 -4.2211073450744152e-03</internalNodes>
          <leafValues>
            -1.3422818854451180e-02 -7.0655268430709839e-01</leafValues></_>
        <_>
          <internalNodes>
            0 -1 118 -6.8279596234788187e-06</internalNodes>
          <leafValues>
            2.3689730465412140e-01 -4.9252596497535706e-01</leafValues></_>
        <_>
          <internalNodes>
            0 -1 24 -1.2565893121063709e-04</internalNodes>
          <leafValues>
            -5.9307307004928589e-01 2.1441742777824402e-01</leafValues></_>
        <_>
          <internalNodes>
            0 -1 17 4.3395065586082637e-04</internalNodes>
          <leafValues>
            2.0321245491504669e-01 -6.8136614561080933e-01</leafValues></_>
        <_>
          <internalNodes>
            0 -1 37 3.3886490855365992e-03</internalNodes>
          <leafValues>
            -2.2284474968910217e-01 6.2137931585311890e-01</leafValues></_>
        <_>
          <internalNodes>
            0 -1 70 1.6223466955125332e-03</internalNodes>
          <leafValues>
            2.1587368845939636e-01 -6.6935104131698608e-01</leafValues></_>
        <_>
          <internalNodes>
            0 -1 32 -1.9789703190326691e-02</internalNodes>
          <leafValues>
            -8.3732831478118896e-01 1.4317055046558380e-01</leafValues></_>
        <_>
          <internalNodes>
            0 -1 130 2.8485886752605438e-02</internalNodes>
          <leafValues>
            -3.1952014565467834e-01 4.5129406452178955e-01</leafValues></_></weakClassifiers></_>
    <!-- stage 17 -->
    <_>
      <maxWeakCount>10</maxWeakCount>
      <stageThreshold>-1.5666712522506714e+00</stageThreshold>
      <weakClassifiers>
        <_>
          <internalNodes>
            0 -1 93 -2.7755531482398510e-03</internalNodes>
          <leafValues>
            3.0935251712799072e-01 -6.3066202402114868e-01</leafValues></_>
        <_>
          <internalNodes>
            0 -1 80 -5.6995805352926254e-03</internalNodes>
          <leafValues>
            6.7976009845733643e-01 -2.8991147875785828e-01</leafValues></_>
        <_>
          <internalNodes>
            0 -1 6 -1.0937211103737354e-02</internalNodes>
          <leafValues>
            2.2523118555545807e-01 -6.2670540809631348e-01</leafValues></_>
        <_>
          <internalNodes>
            0 -1 78 6.9141574203968048e-03</internalNodes>
          <leafValues>
            -2.1042011678218842e-01 6.0034042596817017e-01</leafValues></_>
        <_>
          <internalNodes>
            0 -1 38 -1.8385590985417366e-02</internalNodes>
          <leafValues>
            -6.2922328710556030e-01 2.0789839327335358e-01</leafValues></_>
        <_>
          <internalNodes>
            0 -1 28 -7.9829606693238020e-04</internalNodes>
          <leafValues>
            3.8994801044464111e-01 -3.8234937191009521e-01</leafValues></_>
        <_>
          <internalNodes>
            0 -1 134 7.3672199505381286e-05</internalNodes>
          <leafValues>
            -3.5063835978507996e-01 4.0331155061721802e-01</leafValues></_>
        <_>
          <internalNodes>
            0 -1 50 7.2851125150918961e-03</internalNodes>
          <leafValues>
            -2.5344082713127136e-01 5.7129538059234619e-01</leafValues></_>
        <_>
          <internalNodes>
            0 -1 13 -1.0161820100620389e-03</internalNodes>
          <leafValues>
            -3.7226092815399170e-01 3.7028452754020691e-01</leafValues></_>
        <_>
          <internalNodes>
            0 -1 73 -3.0261785723268986e-03</internalNodes>
          <leafValues>
            3.8797593116760254e-01 -3.3485391736030579e-01</leafValues></_></weakClassifiers></_>
    <!-- stage 18 -->
    <_>
      <maxWeakCount>9</maxWeakCount>
      <stageThreshold>-9.4320935010910034e-01</stageThreshold>
      <weakClassifiers>
        <_>
          <internalNodes>
            0 -1 11 -5.1608759909868240e-02</internalNodes>
          <leafValues>
            1.5116278827190399e-01 -6.3526570796966553e-01</leafValues></_>
        <_>
          <internalNodes>
            0 -1 100 -2.9938900843262672e-04</internalNodes>
          <leafValues>
            -6.2735724449157715e-01 1.5397454798221588e-01</leafValues></_>
        <_>
          <internalNodes>
            0 -1 64 -4.2974145617336035e-04</internalNodes>
          <leafValues>
            3.4126976132392883e-01 -3.5549306869506836e-01</leafValues></_>
        <_>
          <internalNodes>
            0 -1 68 3.0874297954142094e-03</internalNodes>
          <leafValues>
            1.6425366699695587e-01 -7.0032644271850586e-01</leafValues></_>
        <_>
          <internalNodes>
            0 -1 108 -2.6670796796679497e-04</internalNodes>
          <leafValues>
            5.3362458944320679e-01 -2.4469633400440216e-01</leafValues></_>
        <_>
          <internalNodes>
            0 -1 0 4.4029504060745239e-02</internalNodes>
          <leafValues>
            1.5566962957382202e-01 -8.8152205944061279e-01</leafValues></_>
        <_>
          <internalNodes>
            0 -1 59 -1.1302247730782256e-04</internalNodes>
          <leafValues>
            -7.2087752819061279e-01 1.5379157662391663e-01</leafValues></_>
        <_>
          <internalNodes>
            0 -1 58 1.6717452555894852e-02</internalNodes>
          <leafValues>
            1.1690115928649902e-01 -8.8303971290588379e-01</leafValues></_>
        <_>
          <internalNodes>
            0 -1 115 -5.6581653188914061e-04</internalNodes>
          <leafValues>
            6.3631385564804077e-01 -2.3072490096092224e-01</leafValues></_></weakClassifiers></_>
    <!-- stage 19 -->
    <_>
      <maxWeakCount>8</maxWeakCount>
      <stageThreshold>-1.4298475980758667e+00</stageThreshold>
      <weakClassifiers>
        <_>
          <internalNodes>
            0 -1 121 1.3711625710129738e-02</internalNodes>
          <leafValues>
            -6.9411766529083252e-01 -8.7499998509883881e-02</leafValues></_>
        <_>
          <internalNodes>
            0 -1 33 -3.9204559288918972e-04</internalNodes>
          <leafValues>
            2.3484098911285400e-01 -4.6827602386474609e-01</leafValues></_>
        <_>
          <internalNodes>
            0 -1 19 3.9563793689012527e-04</internalNodes>
          <leafValues>
            -4.1129839420318604e-01 2.9914957284927368e-01</leafValues></_>
        <_>
          <internalNodes>
            0 -1 5 -1.6937535256147385e-02</internalNodes>
          <leafValues>
            -6.3339734077453613e-01 1.7287874221801758e-01</leafValues></_>
        <_>
          <internalNodes>
            0 -1 53 3.2146880403161049e-03</internalNodes>
          <leafValues>
            2.2088700532913208e-01 -6.5192002058029175e-01</leafValues></_>
        <_>
          <internalNodes>
            0 -1 126 3.1292031053453684e-03</internalNodes>
          <leafValues>
            1.3490913808345795e-01 -6.5384376049041748e-01</leafValues></_>
        <_>
          <internalNodes>
            0 -1 67 7.6559782028198242e-03</internalNodes>
          <leafValues>
            -1.7433330416679382e-01 7.2640115022659302e-01</leafValues></_>
        <_>
          <internalNodes>
            0 -1 104 -2.9688887298107147e-04</internalNodes>
          <leafValues>
            5.5804216861724854e-01 -2.1049706637859344e-01</leafValues></_></weakClassifiers></_></stages>
  <features>
    <_>
      <rects>
        <_>
          0 0 20 23 -1.</_>
        <_>
          10 0 10 23 2.</_></rects>
      <tilted>0</tilted></_>
    <_>
      <rects>
        <_>
          0 1 12 14 -1.</_>
        <_>
          0 8 12 7 2.</_></rects>
      <tilted>0</tilted></_>
    <_>
      <rects>
        <_>
          0 3 18 38 -1.</_>
        <_>
          0 3 9 19 2.</_>
        <_>
          9 22 9 19 2.</_></rects>
      <tilted>0</tilted></_>
    <_>
      <rects>
        <_>
          0 3 36 18 -1.</_>
        <_>
          0 3 18 9 2.</_>
        <_>
          18 12 18 9 2.</_></rects>
      <tilted>0</tilted></_>
    <_>
      <rects>
        <_>
          0 8 26 45 -1.</_>
        <_>
          13 8 13 45 2.</_></rects>
      <tilted>0</tilted></_>
    <_>
      <rects>
        <_>
          0 9 20 12 -1.</_>
        <_>
          10 9 10 12 2.</_></rects>
      <tilted>0</tilted></_>
    <_>
      <rects>
        <_>
          0 10 48 6 -1.</_>
        <_>
          16 10 16 6 3.</_></rects>
      <tilted>0</tilted></_>
    <_>
      <rects>
        <_>
          0 13 45 39 -1.</_>
        <_>
          15 13 15 39 3.</_></rects>
      <tilted>0</tilted></_>
    <_>
      <rects>
        <_>
          0 15 24 40 -1.</_>
        <_>
          12 15 12 40 2.</_></rects>
      <tilted>0</tilted></_>
    <_>
      <rects>
        <_>
          0 20 24 30 -1.</_>
        <_>
          12 20 12 30 2.</_></rects>
      <tilted>0</tilted></_>
    <_>
      <rects>
        <_>
          0 22 30 30 -1.</_>
        <_>
          15 22 15 30 2.</_></rects>
      <tilted>0</tilted></_>
    <_>
      <rects>
        <_>
          0 43 26 8 -1.</_>
        <_>
          13 43 13 8 2.</_></rects>
      <tilted>0</tilted></_>
    <_>
      <rects>
        <_>
          0 44 1 16 -1.</_>
        <_>
          0 52 1 8 2.</_></rects>
      <tilted>0</tilted></_>
    <_>
      <rects>
        <_>
          0 59 24 1 -1.</_>
        <_>
          12 59 12 1 2.</_></rects>
      <tilted>0</tilted></_>
    <_>
      <rects>
        <_>
          1 0 32 14 -1.</_>
        <_>
          1 0 16 7 2.</_>
        <_>
          17 7 16 7 2.</_></rects>
      <tilted>0</tilted></_>
    <_>
      <rects>
        <_>
          1 0 48 22 -1.</_>
        <_>
          17 0 16 22 3.</_></rects>
      <tilted>0</tilted></_>
    <_>
      <rects>
        <_>
          1 26 4 6 -1.</_>
        <_>
          1 28 4 2 3.</_></rects>
      <tilted>0</tilted></_>
    <_>
      <rects>
        <_>
          1 48 6 10 -1.</_>
        <_>
          1 48 3 5 2.</_>
        <_>
          4 53 3 5 2.</_></rects>
      <tilted>0</tilted></_>
    <_>
      <rects>
        <_>
          2 0 16 40 -1.</_>
        <_>
          2 0 8 20 2.</_>
        <_>
          10 20 8 20 2.</_></rects>
      <tilted>0</tilted></_>
    <_>
      <rects>
        <_>
          2 4 1 27 -1.</_>
        <_>
          2 13 1 9 3.</_></rects>
      <tilted>0</tilted></_>
    <_>
      <rects>
        <_>
          2 12 48 2 -1.</_>
        <_>
          18 12 16 2 3.</_></rects>
      <tilted>0</tilted></_>
    <_>
      <rects>
        <_>
          2 15 48 16 -1.</_>
        <_>
          26 15 24 16 2.</_></rects>
      <tilted>0</tilted></_>
    <_>
      <rects>
        <_>
          2 27 3 12 -1.</_>
        <_>
          2 31 3 4 3.</_></rects>
      <tilted>0</tilted></_>
    <_>
      <rects>
        <_>
          3 0 28 14 -1.</_>
        <_>
          3 0 14 7 2.</_>
        <_>
          17 7 14 7 2.</_></rects>
      <tilted>0</tilted></_>
    <_>
      <rects>
        <_>
          3 2 9 2 -1.</_>
        <_>
          6 2 3 2 3.</_></rects>
      <tilted>0</tilted></_>
    <_>
      <rects>
        <_>
          3 29 12 8 -1.</_>
        <_>
          9 29 6 8 2.</_></rects>
      <tilted>0</tilted></_>
    <_>
      <rects>
        <_>
          4 45 14 4 -1.</_>
        <_>
          11 45 7 4 2.</_></rects>
      <tilted>0</tilted></_>
    <_>
      <rects>
        <_>
          5 21 36 10 -1.</_>
        <_>
          5 26 36 5 2.</_></rects>
      <tilted>0</tilted></_>
    <_>
      <rects>
        <_>
          6 34 36 2 -1.</_>
        <_>
          6 35 36 1 2.</_></rects>
      <tilted>0</tilted></_>
    <_>
      <rects>
        <_>
          7 2 2 1 -1.</_>
        <_>
          8 2 1 1 2.</_></rects>
      <tilted>0</tilted></_>
    <_>
      <rects>
        <_>
          7 7 6 12 -1.</_>
        <_>
          10 7 3 12 2.</_></rects>
      <tilted>0</tilted></_>
    <_>
      <rects>
        <_>
          8 2 2 27 -1.</_>
        <_>
          8 11 2 9 3.</_></rects>
      <tilted>0</tilted></_>
    <_>
      <rects>
        <_>
          8 25 32 14 -1.</_>
        <_>
          8 25 16 7 2.</_>
        <_>
          24 32 16 7 2.</_></rects>
      <tilted>0</tilted></_>
    <_>
      <rects>
        <_>
          9 32 20 2 -1.</_>
        <_>
          9 33 20 1 2.</_></rects>
      <tilted>0</tilted></_>
    <_>
      <rects>
        <_>
          10 10 27 10 -1.</_>
        <_>
          19 10 9 10 3.</_></rects>
      <tilted>0</tilted></_>
    <_>
      <rects>
        <_>
          10 26 15 31 -1.</_>
        <_>
          15 26 5 31 3.</_></rects>
      <tilted>0</tilted></_>
    <_>
      <rects>
        <_>
          11 2 39 8 -1.</_>
        <_>
          11 6 39 4 2.</_></rects>
      <tilted>0</tilted></_>
    <_>
      <rects>
        <_>
          11 10 15 3 -1.</_>
        <_>
          16 10 5 3 3.</_></rects>
      <tilted>0</tilted></_>
    <_>
      <rects>
        <_>
          11 28 23 21 -1.</_>
        <_>
          11 35 23 7 3.</_></rects>
      <tilted>0</tilted></_>
    <_>
      <rects>
        <_>
          11 32 24 9 -1.</_>
        <_>
          11 35 24 3 3.</_></rects>
      <tilted>0</tilted></_>
    <_>
      <rects>
        <_>
          12 0 5 4 -1.</_>
        <_>
          12 2 5 2 2.</_></rects>
      <tilted>0</tilted></_>
    <_>
      <rects>
        <_>
          12 0 16 20 -1.</_>
        <_>
          12 0 8 10 2.</_>
        <_>
          20 10 8 10 2.</_></rects>
      <tilted>0</tilted></_>
    <_>
      <rects>
        <_>
          12 1 20 4 -1.</_>
        <_>
          12 3 20 2 2.</_></rects>
      <tilted>0</tilted></_>
    <_>
      <rects>
        <_>
          12 22 29 6 -1.</_>
        <_>
          12 25 29 3 2.</_></rects>
      <tilted>0</tilted></_>
    <_>
      <rects>
        <_>
          12 24 22 4 -1.</_>
        <_>
          12 26 22 2 2.</_></rects>
      <tilted>0</tilted></_>
    <_>
      <rects>
        <_>
          12 33 16 2 -1.</_>
        <_>
          12 34 16 1 2.</_></rects>
      <tilted>0</tilted></_>
    <_>
      <rects>
        <_>
          12 34 38 9 -1.</_>
        <_>
          31 34 19 9 2.</_></rects>
      <tilted>0</tilted></_>
    <_>
      <rects>
        <_>
          13 23 21 4 -1.</_>
        <_>
          13 25 21 2 2.</_></rects>
      <tilted>0</tilted></_>
    <_>
      <rects>
        <_>
          13 28 1 18 -1.</_>
        <_>
          13 37 1 9 2.</_></rects>
      <tilted>0</tilted></_>
    <_>
      <rects>
        <_>
          13 31 15 2 -1.</_>
        <_>
          13 32 15 1 2.</_></rects>
      <tilted>0</tilted></_>
    <_>
      <rects>
        <_>
          13 48 26 10 -1.</_>
        <_>
          13 48 13 5 2.</_>
        <_>
          26 53 13 5 2.</_></rects>
      <tilted>0</tilted></_>
    <_>
      <rects>
        <_>
          14 22 24 4 -1.</_>
        <_>
          14 24 24 2 2.</_></rects>
      <tilted>0</tilted></_>
    <_>
      <rects>
        <_>
          14 30 21 24 -1.</_>
        <_>
          21 30 7 24 3.</_></rects>
      <tilted>0</tilted></_>
    <_>
      <rects>
        <_>
          15 8 19 8 -1.</_>
        <_>
          15 12 19 4 2.</_></rects>
      <tilted>0</tilted></_>
    <_>
      <rects>
        <_>
          15 9 3 30 -1.</_>
        <_>
          15 24 3 15 2.</_></rects>
      <tilted>0</tilted></_>
    <_>
      <rects>
        <_>
          15 10 34 27 -1.</_>
        <_>
          15 19 34 9 3.</_></rects>
      <tilted>0</tilted></_>
    <_>
      <rects>
        <_>
          16 22 18 16 -1.</_>
        <_>
          16 30 18 8 2.</_></rects>
      <tilted>0</tilted></_>
    <_>
      <rects>
        <_>
          16 23 24 6 -1.</_>
        <_>
          16 25 24 2 3.</_></rects>
      <tilted>0</tilted></_>
    <_>
      <rects>
        <_>
          16 29 22 21 -1.</_>
        <_>
          16 36 22 7 3.</_></rects>
      <tilted>0</tilted></_>
    <_>
      <rects>
        <_>
          16 34 3 7 -1.</_>
        <_>
          17 34 1 7 3.</_></rects>
      <tilted>0</tilted></_>
    <_>
      <rects>
        <_>
          16 40 18 2 -1.</_>
        <_>
          16 41 18 1 2.</_></rects>
      <tilted>0</tilted></_>
    <_>
      <rects>
        <_>
          17 5 24 4 -1.</_>
        <_>
          17 5 12 2 2.</_>
        <_>
          29 7 12 2 2.</_></rects>
      <tilted>0</tilted></_>
    <_>
      <rects>
        <_>
          17 7 12 11 -1.</_>
        <_>
          21 7 4 11 3.</_></rects>
      <tilted>0</tilted></_>
    <_>
      <rects>
        <_>
          17 29 25 2 -1.</_>
        <_>
          17 30 25 1 2.</_></rects>
      <tilted>0</tilted></_>
    <_>
      <rects>
        <_>
          17 32 18 2 -1.</_>
        <_>
          17 33 18 1 2.</_></rects>
      <tilted>0</tilted></_>
    <_>
      <rects>
        <_>
          17 38 21 9 -1.</_>
        <_>
          17 41 21 3 3.</_></rects>
      <tilted>0</tilted></_>
    <_>
      <rects>
        <_>
          18 4 24 18 -1.</_>
        <_>
          30 4 12 18 2.</_></rects>
      <tilted>0</tilted></_>
    <_>
      <rects>
        <_>
          18 15 15 6 -1.</_>
        <_>
          23 15 5 6 3.</_></rects>
      <tilted>0</tilted></_>
    <_>
      <rects>
        <_>
          18 21 6 21 -1.</_>
        <_>
          18 28 6 7 3.</_></rects>
      <tilted>0</tilted></_>
    <_>
      <rects>
        <_>
          18 24 7 4 -1.</_>
        <_>
          18 26 7 2 2.</_></rects>
      <tilted>0</tilted></_>
    <_>
      <rects>
        <_>
          18 25 12 28 -1.</_>
        <_>
          22 25 4 28 3.</_></rects>
      <tilted>0</tilted></_>
    <_>
      <rects>
        <_>
          19 5 9 15 -1.</_>
        <_>
          22 5 3 15 3.</_></rects>
      <tilted>0</tilted></_>
    <_>
      <rects>
        <_>
          19 11 12 6 -1.</_>
        <_>
          23 11 4 6 3.</_></rects>
      <tilted>0</tilted></_>
    <_>
      <rects>
        <_>
          19 23 20 4 -1.</_>
        <_>
          19 25 20 2 2.</_></rects>
      <tilted>0</tilted></_>
    <_>
      <rects>
        <_>
          19 27 2 8 -1.</_>
        <_>
          20 27 1 8 2.</_></rects>
      <tilted>0</tilted></_>
    <_>
      <rects>
        <_>
          19 35 31 2 -1.</_>
        <_>
          19 36 31 1 2.</_></rects>
      <tilted>0</tilted></_>
    <_>
      <rects>
        <_>
          19 47 10 2 -1.</_>
        <_>
          19 48 10 1 2.</_></rects>
      <tilted>0</tilted></_>
    <_>
      <rects>
        <_>
          20 8 4 15 -1.</_>
        <_>
          20 13 4 5 3.</_></rects>
      <tilted>0</tilted></_>
    <_>
      <rects>
        <_>
          20 9 15 10 -1.</_>
        <_>
          25 9 5 10 3.</_></rects>
      <tilted>0</tilted></_>
    <_>
      <rects>
        <_>
          20 11 30 4 -1.</_>
        <_>
          35 11 15 4 2.</_></rects>
      <tilted>0</tilted></_>
    <_>
      <rects>
        <_>
          20 12 10 5 -1.</_>
        <_>
          25 12 5 5 2.</_></rects>
      <tilted>0</tilted></_>
    <_>
      <rects>
        <_>
          20 26 21 2 -1.</_>
        <_>
          20 27 21 1 2.</_></rects>
      <tilted>0</tilted></_>
    <_>
      <rects>
        <_>
          20 29 3 18 -1.</_>
        <_>
          20 38 3 9 2.</_></rects>
      <tilted>0</tilted></_>
    <_>
      <rects>
        <_>
          20 38 15 13 -1.</_>
        <_>
          25 38 5 13 3.</_></rects>
      <tilted>0</tilted></_>
    <_>
      <rects>
        <_>
          20 40 24 2 -1.</_>
        <_>
          20 41 24 1 2.</_></rects>
      <tilted>0</tilted></_>
    <_>
      <rects>
        <_>
          20 42 28 4 -1.</_>
        <_>
          20 42 14 2 2.</_>
        <_>
          34 44 14 2 2.</_></rects>
      <tilted>0</tilted></_>
    <_>
      <rects>
        <_>
          21 22 7 2 -1.</_>
        <_>
          21 23 7 1 2.</_></rects>
      <tilted>0</tilted></_>
    <_>
      <rects>
        <_>
          21 25 9 2 -1.</_>
        <_>
          21 26 9 1 2.</_></rects>
      <tilted>0</tilted></_>
    <_>
      <rects>
        <_>
          21 38 8 2 -1.</_>
        <_>
          21 39 8 1 2.</_></rects>
      <tilted>0</tilted></_>
    <_>
      <rects>
        <_>
          21 40 6 3 -1.</_>
        <_>
          23 40 2 3 3.</_></rects>
      <tilted>0</tilted></_>
    <_>
      <rects>
        <_>
          21 47 7 2 -1.</_>
        <_>
          21 48 7 1 2.</_></rects>
      <tilted>0</tilted></_>
    <_>
      <rects>
        <_>
          22 12 6 2 -1.</_>
        <_>
          24 12 2 2 3.</_></rects>
      <tilted>0</tilted></_>
    <_>
      <rects>
        <_>
          22 12 28 43 -1.</_>
        <_>
          36 12 14 43 2.</_></rects>
      <tilted>0</tilted></_>
    <_>
      <rects>
        <_>
          22 16 8 8 -1.</_>
        <_>
          22 16 4 4 2.</_>
        <_>
          26 20 4 4 2.</_></rects>
      <tilted>0</tilted></_>
    <_>
      <rects>
        <_>
          22 27 2 2 -1.</_>
        <_>
          22 28 2 1 2.</_></rects>
      <tilted>0</tilted></_>
    <_>
      <rects>
        <_>
          22 28 5 2 -1.</_>
        <_>
          22 29 5 1 2.</_></rects>
      <tilted>0</tilted></_>
    <_>
      <rects>
        <_>
          22 29 15 2 -1.</_>
        <_>
          22 30 15 1 2.</_></rects>
      <tilted>0</tilted></_>
    <_>
      <rects>
        <_>
          22 36 2 7 -1.</_>
        <_>
          23 36 1 7 2.</_></rects>
      <tilted>0</tilted></_>
    <_>
      <rects>
        <_>
          23 31 5 18 -1.</_>
        <_>
          23 40 5 9 2.</_></rects>
      <tilted>0</tilted></_>
    <_>
      <rects>
        <_>
          23 48 5 2 -1.</_>
        <_>
          23 49 5 1 2.</_></rects>
      <tilted>0</tilted></_>
    <_>
      <rects>
        <_>
          24 0 15 2 -1.</_>
        <_>
          29 0 5 2 3.</_></rects>
      <tilted>0</tilted></_>
    <_>
      <rects>
        <_>
          24 15 8 9 -1.</_>
        <_>
          24 18 8 3 3.</_></rects>
      <tilted>0</tilted></_>
    <_>
      <rects>
        <_>
          24 16 10 12 -1.</_>
        <_>
          24 16 5 6 2.</_>
        <_>
          29 22 5 6 2.</_></rects>
      <tilted>0</tilted></_>
    <_>
      <rects>
        <_>
          24 16 12 5 -1.</_>
        <_>
          30 16 6 5 2.</_></rects>
      <tilted>0</tilted></_>
    <_>
      <rects>
        <_>
          24 20 8 2 -1.</_>
        <_>
          24 20 4 1 2.</_>
        <_>
          28 21 4 1 2.</_></rects>
      <tilted>0</tilted></_>
    <_>
      <rects>
        <_>
          24 25 2 16 -1.</_>
        <_>
          24 25 1 8 2.</_>
        <_>
          25 33 1 8 2.</_></rects>
      <tilted>0</tilted></_>
    <_>
      <rects>
        <_>
          24 30 6 8 -1.</_>
        <_>
          26 30 2 8 3.</_></rects>
      <tilted>0</tilted></_>
    <_>
      <rects>
        <_>
          24 36 1 16 -1.</_>
        <_>
          24 44 1 8 2.</_></rects>
      <tilted>0</tilted></_>
    <_>
      <rects>
        <_>
          24 46 8 2 -1.</_>
        <_>
          24 47 8 1 2.</_></rects>
      <tilted>0</tilted></_>
    <_>
      <rects>
        <_>
          25 2 6 28 -1.</_>
        <_>
          28 2 3 28 2.</_></rects>
      <tilted>0</tilted></_>
    <_>
      <rects>
        <_>
          25 34 14 2 -1.</_>
        <_>
          25 35 14 1 2.</_></rects>
      <tilted>0</tilted></_>
    <_>
      <rects>
        <_>
          25 47 7 2 -1.</_>
        <_>
          25 48 7 1 2.</_></rects>
      <tilted>0</tilted></_>
    <_>
      <rects>
        <_>
          26 27 6 18 -1.</_>
        <_>
          28 27 2 18 3.</_></rects>
      <tilted>0</tilted></_>
    <_>
      <rects>
        <_>
          26 27 24 17 -1.</_>
        <_>
          38 27 12 17 2.</_></rects>
      <tilted>0</tilted></_>
    <_>
      <rects>
        <_>
          26 32 1 16 -1.</_>
        <_>
          26 40 1 8 2.</_></rects>
      <tilted>0</tilted></_>
    <_>
      <rects>
        <_>
          26 42 12 2 -1.</_>
        <_>
          26 43 12 1 2.</_></rects>
      <tilted>0</tilted></_>
    <_>
      <rects>
        <_>
          26 46 1 2 -1.</_>
        <_>
          26 47 1 1 2.</_></rects>
      <tilted>0</tilted></_>
    <_>
      <rects>
        <_>
          27 29 3 2 -1.</_>
        <_>
          27 30 3 1 2.</_></rects>
      <tilted>0</tilted></_>
    <_>
      <rects>
        <_>
          27 43 2 2 -1.</_>
        <_>
          27 44 2 1 2.</_></rects>
      <tilted>0</tilted></_>
    <_>
      <rects>
        <_>
          27 48 2 4 -1.</_>
        <_>
          27 50 2 2 2.</_></rects>
      <tilted>0</tilted></_>
    <_>
      <rects>
        <_>
          27 49 1 2 -1.</_>
        <_>
          27 50 1 1 2.</_></rects>
      <tilted>0</tilted></_>
    <_>
      <rects>
        <_>
          28 28 22 3 -1.</_>
        <_>
          39 28 11 3 2.</_></rects>
      <tilted>0</tilted></_>
    <_>
      <rects>
        <_>
          28 34 22 2 -1.</_>
        <_>
          39 34 11 2 2.</_></rects>
      <tilted>0</tilted></_>
    <_>
      <rects>
        <_>
          29 5 20 38 -1.</_>
        <_>
          29 5 10 19 2.</_>
        <_>
          39 24 10 19 2.</_></rects>
      <tilted>0</tilted></_>
    <_>
      <rects>
        <_>
          29 26 4 14 -1.</_>
        <_>
          29 33 4 7 2.</_></rects>
      <tilted>0</tilted></_>
    <_>
      <rects>
        <_>
          30 2 18 36 -1.</_>
        <_>
          30 2 9 18 2.</_>
        <_>
          39 20 9 18 2.</_></rects>
      <tilted>0</tilted></_>
    <_>
      <rects>
        <_>
          33 1 8 16 -1.</_>
        <_>
          33 1 4 8 2.</_>
        <_>
          37 9 4 8 2.</_></rects>
      <tilted>0</tilted></_>
    <_>
      <rects>
        <_>
          34 24 10 30 -1.</_>
        <_>
          39 24 5 30 2.</_></rects>
      <tilted>0</tilted></_>
    <_>
      <rects>
        <_>
          34 58 3 2 -1.</_>
        <_>
          34 59 3 1 2.</_></rects>
      <tilted>0</tilted></_>
    <_>
      <rects>
        <_>
          35 22 4 6 -1.</_>
        <_>
          37 22 2 6 2.</_></rects>
      <tilted>0</tilted></_>
    <_>
      <rects>
        <_>
          36 4 12 36 -1.</_>
        <_>
          42 4 6 36 2.</_></rects>
      <tilted>0</tilted></_>
    <_>
      <rects>
        <_>
          37 40 6 20 -1.</_>
        <_>
          37 40 3 10 2.</_>
        <_>
          40 50 3 10 2.</_></rects>
      <tilted>0</tilted></_>
    <_>
      <rects>
        <_>
          46 8 2 6 -1.</_>
        <_>
          47 8 1 6 2.</_></rects>
      <tilted>0</tilted></_>
    <_>
      <rects>
        <_>
          46 35 4 2 -1.</_>
        <_>
          46 36 4 1 2.</_></rects>
      <tilted>0</tilted></_>
    <_>
      <rects>
        <_>
          47 1 3 4 -1.</_>
        <_>
          47 3 3 2 2.</_></rects>
      <tilted>0</tilted></_>
    <_>
      <rects>
        <_>
          47 39 3 12 -1.</_>
        <_>
          47 45 3 6 2.</_></rects>
      <tilted>0</tilted></_></features></cascade>
</opencv_storage>
